{
  "threshold": 0.5,
  "feature_names": [
    "range_plausibility",
    "position_plausibility_check",
    "speed_plausibility_check",
    "position_consistency_check",
    "speed_consistency_check",
    "position_speed_consistency_check",
    "position_heading_consistency_check",
    "intersection_check"
  ],
  "layers": [
    {
      "weights": [
        [
          0.027417727948831273,
          -0.5419906367184423,
          0.2502847859748458,
          0.47103848803242343,
          -0.9755175943269182,
          -0.6509952655722686,
          0.06467633142045617,
          -0.2831500040937487
        ],
        [
          -0.9253465244325697,
          -0.26330699282533987,
          -0.47724695824901453,
          0.5573763657091578,
          0.1228436174076848,
          0.27485907923514874,
          0.4025066144558488,
          -1.467261193510801
        ],
        [
          0.4350610433978173,
          -0.47992432694307735,
          0.6899108020102015,
          -0.029582870339769113,
          -0.17496487741644443,
          -0.47755818239511666,
          0.6067145950152351,
          0.2770728541844103
        ],
        [
          -0.18029306054231567,
          1.7891337374344345,
          0.30002544331591247,
          0.5059355841735834,
          0.32563389564547457,
          -0.7738957192942729,
          1.39489363338717,
          -0.6162093149361912
        ],
        [
          -0.4226925760007281,
          -0.4517787150318969,
          0.14141849982279173,
          0.5721823849421347,
          -0.0497759114013616,
          -0.4187125343795616,
          -0.40454073359160814,
          0.15872530910811875
        ],
        [
          0.37478088142661964,
          0.6354070281674464,
          -0.3296010578194488,
          0.2686482439741718,
          0.172709077972949,
          -0.020535132579050732,
          0.5884794748294515,
          -0.03128689869983816
        ],
        [
          0.18035746286055046,
          0.8542529054315021,
          -0.01453961933040474,
          0.19583791169345996,
          -0.7790968675608938,
          0.0897066692834999,
          -0.35521054693145815,
          -0.5062726083379796
        ],
        [
          -0.39404740876833244,
          0.5104580811592961,
          -0.6893918410016092,
          0.8171260272283047,
          -0.5231037526385701,
          0.0799097398698079,
          0.41439526374370433,
          0.03679607509889605
        ],
        [
          0.042834007830447315,
          0.08397746884935385,
          -0.487141818190207,
          -0.22961943116694178,
          0.43054440579391745,
          -0.09444752699236895,
          -0.636286696503624,
          -0.880891605277402
        ],
        [
          0.10612549292915621,
          -0.11438395148865475,
          0.637064503965243,
          0.9256846780165439,
          0.2742982987191393,
          -0.07301943872192003,
          0.8937225855170323,
          0.3584677210588444
        ],
        [
          1.7008952877632604,
          -0.5544814691735688,
          1.2909807457020193,
          -0.1833945839130286,
          -0.5789907875306851,
          0.3222508554254259,
          -0.22728404722810583,
          1.570391129658209
        ],
        [
          1.6255721224315256,
          -2.9024582837480137,
          1.717891347464956,
          -0.23580810193479035,
          -0.23869680870085846,
          0.7321979176618661,
          -1.0308377685175514,
          1.2802577554201362
        ],
        [
          -0.6613498061772012,
          -0.4986234138007409,
          0.1998871133617183,
          -0.4527395276800304,
          -0.18908127701969485,
          0.6496141488930327,
          -0.17813198553071297,
          0.3687577842335433
        ],
        [
          -0.4668088400049385,
          -0.10271877893381501,
          -0.4750110274552906,
          -0.16951653795028124,
          0.42015406872869776,
          -0.8636602115961743,
          0.21721182177292866,
          0.11886780116613894
        ],
        [
          -0.33983560162080356,
          -0.7336427977505954,
          -0.006695869915471933,
          -0.30750697830430757,
          0.07357748190494595,
          -0.03183455101068563,
          0.7581288218880532,
          -0.16243843750891768
        ],
        [
          -0.45801593351545644,
          0.1648532906213204,
          0.16373115478135428,
          0.7330865864524614,
          0.4121887579739614,
          -0.1383705600140676,
          0.7853842584052623,
          -0.5478808245090449
        ]
      ],
      "bias": [
        -0.12494081192838434,
        -0.916945945680525,
        0.25068565135646265,
        0.033870850540607206,
        -0.16657121146496268,
        0.0031537958251147825,
        -0.15909931867495775,
        -0.2564762831549608,
        -0.3127792820660172,
        0.5658516359301434,
        1.4725076689846277,
        1.3851987929785103,
        0.0,
        0.0,
        -0.04276062377240711,
        0.05373281279538629
      ]
    },
    {
      "weights": [
        [
          -0.22462175601288775,
          0.2819963401280269,
          1.1292292976103533,
          -0.3459209578187213,
          0.22523651176655224,
          -0.555826639989976,
          -0.5204182936281991,
          -0.36860164102138937,
          0.11094921695204417,
          -0.5780487329585209,
          1.0830494068449468,
          0.8983386792246348,
          0.14651586022856558,
          -0.3498545574585595,
          -0.750508971418133,
          0.09706438276994703
        ],
        [
          -0.2919453834243674,
          -0.04468361658085107,
          0.05500573091947349,
          0.011784824771208508,
          0.3735984427658667,
          -0.17398765492237284,
          -0.14425789331437644,
          -0.380504419090375,
          -0.5921694803934603,
          -0.4204540461971902,
          0.04093483009568294,
          0.458063636494079,
          0.046058998774655045,
          0.34745088619217795,
          -0.17652765177181526,
          -0.41692713989688895
        ],
        [
          -0.34580331820683424,
          -0.13472799082583867,
          1.1561876388269061,
          -0.37409465604937453,
          0.2909537347047627,
          -0.5990502661509663,
          0.22020048407025536,
          0.10707124767557713,
          -0.05598365510264903,
          -0.31549358756516427,
          0.013704262521918451,
          0.2988024083619649,
          -0.1608609521384109,
          -0.4333170733105695,
          -0.45181916236724523,
          0.03933254956669639
        ],
        [
          0.4965461303584873,
          0.44072899247629505,
          0.059489449467316775,
          1.3124333620336697,
          0.3952952285197734,
          0.5305889343012186,
          -0.3624813038730868,
          0.1500782172264456,
          0.14641980820595243,
          0.8057869838872403,
          -0.21123513345090147,
          -0.5725675310761636,
          -0.4837173237646833,
          0.5836911680655008,
          0.6044638505753501,
          0.8776690260071376
        ],
        [
          -0.13560832796535643,
          0.6075079991578405,
          -0.2787420413498177,
          -0.22107307973895368,
          0.2274462169161688,
          -0.20065732688394172,
          -0.03859900117692177,
          -0.06688638816214801,
          0.11929292667890273,
          0.4038526043900152,
          0.03214565097077548,
          0.05395256748450704,
          -0.7248452976192539,
          -0.017224556186679094,
          -0.2977832269789005,
          -0.41159935337759
        ],
        [
          -0.3193350221142522,
          -0.11815059331320456,
          0.29916017547108686,
          -0.46895064261505004,
          0.0002444510288358148,
          -0.2286091806188299,
          -0.1456236377423051,
          0.29869038278002785,
          0.18911154487964008,
          0.4728416354594095,
          -0.055440320629912866,
          -0.2542128326870322,
          -0.0791460437222994,
          0.0857355627619298,
          0.062428109569751034,
          -0.38338907965701063
        ],
        [
          0.03966099305472384,
          -0.17198515669879255,
          0.9376607657446059,
          0.6816763748839044,
          -0.2931640541789072,
          -0.03088301623091182,
          -0.3082677604010569,
          -0.17133505207678265,
          0.11146155672444415,
          0.63343666217487,
          -0.27135189187433734,
          -0.0041195442605743825,
          -0.7591813170478425,
          -0.05751108774262818,
          -0.3800380425002627,
          -0.2635778332874885
        ],
        [
          -0.3100193221084654,
          -0.03332839309094079,
          -0.6356245216688982,
          -0.5186788206617261,
          0.7528025358685411,
          -0.5443772015514763,
          -0.4297649188828829,
          0.5501885488794785,
          1.0246035236155038,
          -0.41421135392713104,
          -0.13019566725484416,
          0.1052274757833333,
          0.6111869134902027,
          -0.3489066661092757,
          -0.08671881407024756,
          0.27483033565218645
        ]
      ],
      "bias": [
        0.8678818575131687,
        -0.006192234342249774,
        0.0997073406253357,
        -0.3559354648728999,
        0.010867683588728144,
        -0.15516646542521034,
        0.09406706555581448,
        -0.2113450176450243
      ]
    },
    {
      "weights": [
        [
          0.2526223316383634,
          -0.10673245950730156,
          1.2891705913868048,
          -1.014493488649419,
          -0.6408727307241304,
          -0.05790853933735512,
          -1.0500617997448547,
          -0.2661285460721007
        ]
      ],
      "bias": [
        1.7381736364760676
      ]
    }
  ],
  "training_config": {
    "optimizer": "scipy.optimize.minimize",
    "method": "L-BFGS-B",
    "maxiter": 200
  },
  "metrics": {
    "threshold": 0.5,
    "feature_names": [
      "range_plausibility",
      "position_plausibility_check",
      "speed_plausibility_check",
      "position_consistency_check",
      "speed_consistency_check",
      "position_speed_consistency_check",
      "position_heading_consistency_check",
      "intersection_check"
    ],
    "hidden_layers": [
      16,
      8
    ],
    "optimizer_success": true,
    "optimizer_message": "CONVERGENCE: RELATIVE REDUCTION OF F <= FACTR*EPSMCH",
    "train": {
      "threshold": {
        "tp": 8541,
        "tn": 30150,
        "fp": 7551,
        "fn": 27452,
        "accuracy": 0.5250223898824871,
        "precision": 0.5307606263982103,
        "recall": 0.23729614091628928,
        "f1": 0.3279639051550351
      },
      "mlp": {
        "tp": 35948,
        "tn": 37052,
        "fp": 649,
        "fn": 45,
        "accuracy": 0.990582679729693,
        "precision": 0.9822663059813646,
        "recall": 0.9987497568971745,
        "f1": 0.9904394544703126
      }
    },
    "validation": {
      "threshold": {
        "tp": 4869,
        "tn": 12900,
        "fp": 5077,
        "fn": 11860,
        "accuracy": 0.5119864000461015,
        "precision": 0.48954353508948323,
        "recall": 0.29105146751150696,
        "f1": 0.36506091846298033
      },
      "mlp": {
        "tp": 16715,
        "tn": 17740,
        "fp": 237,
        "fn": 14,
        "accuracy": 0.9927678211260301,
        "precision": 0.9860193487494101,
        "recall": 0.9991631298941958,
        "f1": 0.9925477272052493
      }
    },
    "test": {
      "threshold": {
        "tp": 8589,
        "tn": 32193,
        "fp": 12066,
        "fn": 31046,
        "accuracy": 0.48611342885069253,
        "precision": 0.4158315177923021,
        "recall": 0.2167024094865649,
        "f1": 0.2849228727815558
      },
      "mlp": {
        "tp": 39598,
        "tn": 43473,
        "fp": 786,
        "fn": 37,
        "accuracy": 0.9901900016687725,
        "precision": 0.9805368462757528,
        "recall": 0.9990664816450108,
        "f1": 0.9897149427011085
      }
    }
  }
}